digraph Tree {
node [shape=box, style="filled", color="black"] ;
0 [label="BMI <= 26.85\nmse = 6081.956\nsamples = 309\nvalue = 151.783", fillcolor="#e581395a"] ;
1 [label="LTG <= 4.714\nmse = 3620.515\nsamples = 188\nvalue = 117.973", fillcolor="#e581391f"] ;
0 -> 1 [labeldistance=2.5, labelangle=45, headlabel="True"] ;
2 [label="mse = 2426.989\nsamples = 136\nvalue = 100.162", fillcolor="#e5813900"] ;
1 -> 2 ;
3 [label="mse = 3742.208\nsamples = 52\nvalue = 164.558", fillcolor="#e5813971"] ;
1 -> 3 ;
4 [label="GLUCOSE <= 97.5\nmse = 5370.794\nsamples = 121\nvalue = 204.314", fillcolor="#e58139b6"] ;
0 -> 4 [labeldistance=2.5, labelangle=-45, headlabel="False"] ;
5 [label="mse = 5122.509\nsamples = 77\nvalue = 180.662", fillcolor="#e581398d"] ;
4 -> 5 ;
6 [label="mse = 3113.163\nsamples = 44\nvalue = 245.705", fillcolor="#e58139ff"] ;
4 -> 6 ;
}