digraph Tree {
node [shape=box, style="filled", color="black"] ;
0 [label="ABDOMEN <= 91.3\nmse = 70.379\nsamples = 176\nvalue = 18.676", fillcolor="#e5813971"] ;
1 [label="ABDOMEN <= 85.45\nmse = 31.841\nsamples = 90\nvalue = 12.782", fillcolor="#e581392f"] ;
0 -> 1 [labeldistance=2.5, labelangle=45, headlabel="True"] ;
2 [label="AGE <= 42.5\nmse = 21.668\nsamples = 50\nvalue = 10.014", fillcolor="#e5813910"] ;
1 -> 2 ;
3 [label="mse = 18.586\nsamples = 32\nvalue = 8.584", fillcolor="#e5813900"] ;
2 -> 3 ;
4 [label="mse = 17.054\nsamples = 18\nvalue = 12.556", fillcolor="#e581392d"] ;
2 -> 4 ;
5 [label="NECK <= 37.25\nmse = 23.004\nsamples = 40\nvalue = 16.242", fillcolor="#e5813956"] ;
1 -> 5 ;
6 [label="mse = 18.663\nsamples = 18\nvalue = 18.472", fillcolor="#e581396f"] ;
5 -> 6 ;
7 [label="mse = 19.161\nsamples = 22\nvalue = 14.418", fillcolor="#e5813942"] ;
5 -> 7 ;
8 [label="ABDOMEN <= 104.9\nmse = 36.311\nsamples = 86\nvalue = 24.844", fillcolor="#e58139b7"] ;
0 -> 8 [labeldistance=2.5, labelangle=-45, headlabel="False"] ;
9 [label="HEIGHT <= 71.875\nmse = 19.797\nsamples = 65\nvalue = 22.762", fillcolor="#e581399f"] ;
8 -> 9 ;
10 [label="ABDOMEN <= 96.0\nmse = 21.57\nsamples = 42\nvalue = 23.821", fillcolor="#e58139ab"] ;
9 -> 10 ;
11 [label="mse = 20.151\nsamples = 23\nvalue = 22.326", fillcolor="#e581399a"] ;
10 -> 11 ;
12 [label="mse = 17.303\nsamples = 19\nvalue = 25.632", fillcolor="#e58139bf"] ;
10 -> 12 ;
13 [label="mse = 10.763\nsamples = 23\nvalue = 20.826", fillcolor="#e5813989"] ;
9 -> 13 ;
14 [label="mse = 32.445\nsamples = 21\nvalue = 31.29", fillcolor="#e58139ff"] ;
8 -> 14 ;
}